{
 "days": [
  "2026-01-02",
  "2026-01-05",
  "2026-01-06",
  "2026-01-07",
  "2026-01-08",
  "2026-01-09",
  "2026-01-12",
  "2026-01-13",
  "2026-01-14",
  "2026-01-15",
  "2026-01-16",
  "2026-01-20",
  "2026-01-21",
  "2026-01-22",
  "2026-01-23",
  "2026-01-26",
  "2026-01-27",
  "2026-01-28",
  "2026-01-29",
  "2026-01-30",
  "2026-02-02",
  "2026-02-03",
  "2026-02-04",
  "2026-02-05",
  "2026-02-06",
  "2026-02-09",
  "2026-02-10",
  "2026-02-11",
  "2026-02-12",
  "2026-02-13",
  "2026-02-17",
  "2026-02-18",
  "2026-02-19",
  "2026-02-20",
  "2026-02-23",
  "2026-02-24",
  "2026-02-25",
  "2026-02-26",
  "2026-02-27",
  "2026-03-02",
  "2026-03-03",
  "2026-03-04",
  "2026-03-05",
  "2026-03-06",
  "2026-03-09",
  "2026-03-10",
  "2026-03-11",
  "2026-03-12",
  "2026-03-13",
  "2026-03-16",
  "2026-03-17",
  "2026-03-18",
  "2026-03-19",
  "2026-03-20",
  "2026-03-23",
  "2026-03-24",
  "2026-03-25",
  "2026-03-26",
  "2026-03-27",
  "2026-03-30",
  "2026-03-31",
  "2026-04-01",
  "2026-04-02",
  "2026-04-06",
  "2026-04-07",
  "2026-04-08",
  "2026-04-09",
  "2026-04-10",
  "2026-04-13",
  "2026-04-14",
  "2026-04-15",
  "2026-04-16",
  "2026-04-17",
  "2026-04-20",
  "2026-04-21",
  "2026-04-22",
  "2026-04-23",
  "2026-04-24",
  "2026-04-27",
  "2026-04-28",
  "2026-04-29",
  "2026-04-30",
  "2026-05-01",
  "2026-05-04",
  "2026-05-05",
  "2026-05-06",
  "2026-05-07",
  "2026-05-08",
  "2026-05-11",
  "2026-05-12",
  "2026-05-13",
  "2026-05-14",
  "2026-05-15",
  "2026-05-18",
  "2026-05-19",
  "2026-05-20",
  "2026-05-21",
  "2026-05-22",
  "2026-05-26",
  "2026-05-27",
  "2026-05-28",
  "2026-05-29"
 ],
 "weights": {
  "2026-01-02": {
   "TSLA": 0.25,
   "NFLX": 0.25,
   "AMZN": 0.25,
   "MSFT": 0.2,
   "COIN": 0.0
  },
  "2026-01-05": {
   "TSLA": 0.23,
   "NFLX": 0.23,
   "AMZN": 0.27,
   "MSFT": 0.17,
   "COIN": 0.08
  },
  "2026-01-06": {
   "TSLA": 0.15,
   "NFLX": 0.23,
   "AMZN": 0.3,
   "MSFT": 0.1,
   "COIN": 0.1
  },
  "2026-01-07": {
   "TSLA": 0.12,
   "NFLX": 0.05,
   "AMZN": 0.32,
   "MSFT": 0.12,
   "COIN": 0.11
  },
  "2026-01-08": {
   "TSLA": 0.06,
   "NFLX": 0.02,
   "AMZN": 0.35,
   "MSFT": 0.15,
   "COIN": 0.12
  },
  "2026-01-09": {
   "TSLA": 0.03,
   "NFLX": 0.01,
   "AMZN": 0.38,
   "MSFT": 0.18,
   "COIN": 0.15
  },
  "2026-01-12": {
   "TSLA": 0.045,
   "NFLX": 0.01,
   "AMZN": 0.385,
   "MSFT": 0.195,
   "COIN": 0.16
  },
  "2026-01-13": {
   "TSLA": 0.07,
   "NFLX": 0.015,
   "AMZN": 0.38,
   "MSFT": 0.19,
   "COIN": 0.15
  },
  "2026-01-14": {
   "TSLA": 0.03,
   "NFLX": 0.015,
   "AMZN": 0.43,
   "MSFT": 0.17,
   "COIN": 0.16
  },
  "2026-01-15": {
   "TSLA": 0.035,
   "NFLX": 0.02,
   "AMZN": 0.3,
   "MSFT": 0.18,
   "COIN": 0.17
  },
  "2026-01-16": {
   "TSLA": 0.045,
   "NFLX": 0.01,
   "AMZN": 0.2,
   "MSFT": 0.185,
   "COIN": 0.0
  },
  "2026-01-20": {
   "TSLA": 0.015,
   "NFLX": 0.005,
   "AMZN": 0.0,
   "MSFT": 0.12,
   "COIN": 0.0
  },
  "2026-01-21": {
   "TSLA": 0.01,
   "NFLX": 0.002,
   "AMZN": 0.03,
   "MSFT": 0.11,
   "COIN": 0.0
  },
  "2026-01-22": {
   "TSLA": 0.02,
   "NFLX": 0.0,
   "AMZN": 0.0,
   "MSFT": 0.1,
   "COIN": 0.01
  },
  "2026-01-23": {
   "TSLA": 0.03,
   "NFLX": 0.0,
   "AMZN": 0.0,
   "MSFT": 0.09,
   "COIN": 0.01
  },
  "2026-01-26": {
   "TSLA": 0.0,
   "NFLX": 0.02,
   "AMZN": 0.08,
   "MSFT": 0.1,
   "COIN": 0.03
  },
  "2026-01-27": {
   "TSLA": 0.0,
   "NFLX": 0.03,
   "AMZN": 0.09,
   "MSFT": 0.11,
   "COIN": 0.03
  },
  "2026-01-28": {
   "TSLA": 0.0,
   "NFLX": 0.05,
   "AMZN": 0.12,
   "MSFT": 0.13,
   "COIN": 0.0
  },
  "2026-01-29": {
   "TSLA": 0.0,
   "NFLX": 0.06,
   "AMZN": 0.14,
   "MSFT": 0.15,
   "COIN": 0.0
  },
  "2026-01-30": {
   "TSLA": 0.0,
   "NFLX": 0.03,
   "AMZN": 0.18,
   "MSFT": 0.12,
   "COIN": 0.0
  },
  "2026-02-02": {
   "TSLA": 0.1,
   "NFLX": 0.0,
   "AMZN": 0.2,
   "MSFT": 0.1,
   "COIN": 0.0
  },
  "2026-02-03": {
   "TSLA": 0.1,
   "NFLX": 0.05,
   "AMZN": 0.1,
   "MSFT": 0.05,
   "COIN": 0.1
  },
  "2026-02-04": {
   "TSLA": 0.12,
   "NFLX": 0.05,
   "AMZN": 0.0,
   "MSFT": 0.05,
   "COIN": 0.1
  },
  "2026-02-05": {
   "TSLA": 0.05,
   "NFLX": 0.08,
   "AMZN": 0.0,
   "MSFT": 0.05,
   "COIN": 0.1
  },
  "2026-02-06": {
   "TSLA": 0.025,
   "NFLX": 0.1,
   "AMZN": 0.0,
   "MSFT": 0.025,
   "COIN": 0.0
  },
  "2026-02-09": {
   "TSLA": 0.035,
   "NFLX": 0.12,
   "AMZN": 0.01,
   "MSFT": 0.035,
   "COIN": 0.0
  },
  "2026-02-10": {
   "TSLA": 0.01,
   "NFLX": 0.14,
   "AMZN": 0.015,
   "MSFT": 0.05,
   "COIN": 0.0
  },
  "2026-02-11": {
   "TSLA": 0.03,
   "NFLX": 0.16,
   "AMZN": 0.02,
   "MSFT": 0.01,
   "COIN": 0.0
  },
  "2026-02-12": {
   "TSLA": 0.035,
   "NFLX": 0.1,
   "AMZN": 0.01,
   "MSFT": 0.005,
   "COIN": 0.02
  },
  "2026-02-13": {
   "TSLA": 0.06,
   "NFLX": 0.08,
   "AMZN": 0.015,
   "MSFT": 0.0,
   "COIN": 0.0
  },
  "2026-02-17": {
   "TSLA": 0.075,
   "NFLX": 0.06,
   "AMZN": 0.02,
   "MSFT": 0.03,
   "COIN": 0.02
  },
  "2026-02-18": {
   "TSLA": 0.1,
   "NFLX": 0.0,
   "AMZN": 0.015,
   "MSFT": 0.025,
   "COIN": 0.015
  },
  "2026-02-19": {
   "TSLA": 0.07,
   "NFLX": 0.01,
   "AMZN": 0.02,
   "MSFT": 0.03,
   "COIN": 0.0
  },
  "2026-02-20": {
   "TSLA": 0.035,
   "NFLX": 0.015,
   "AMZN": 0.035,
   "MSFT": 0.025,
   "COIN": 0.015
  },
  "2026-02-23": {
   "TSLA": 0.04,
   "NFLX": 0.01,
   "AMZN": 0.04,
   "MSFT": 0.0,
   "COIN": 0.02
  },
  "2026-02-24": {
   "TSLA": 0.03,
   "NFLX": 0.02,
   "AMZN": 0.06,
   "MSFT": 0.0,
   "COIN": 0.03
  },
  "2026-02-25": {
   "TSLA": 0.045,
   "NFLX": 0.035,
   "AMZN": 0.08,
   "MSFT": 0.04,
   "COIN": 0.04
  },
  "2026-02-26": {
   "TSLA": 0.0,
   "NFLX": 0.05,
   "AMZN": 0.1,
   "MSFT": 0.05,
   "COIN": 0.05
  },
  "2026-02-27": {
   "TSLA": 0.0,
   "NFLX": 0.075,
   "AMZN": 0.125,
   "MSFT": 0.075,
   "COIN": 0.075
  },
  "2026-03-02": {
   "TSLA": 0.0,
   "NFLX": 0.1,
   "AMZN": 0.15,
   "MSFT": 0.1,
   "COIN": 0.1
  },
  "2026-03-03": {
   "TSLA": 0.0,
   "NFLX": 0.12,
   "AMZN": 0.0,
   "MSFT": 0.12,
   "COIN": 0.1
  },
  "2026-03-04": {
   "TSLA": 0.1,
   "NFLX": 0.15,
   "AMZN": 0.1,
   "MSFT": 0.15,
   "COIN": 0.1
  },
  "2026-03-05": {
   "TSLA": 0.05,
   "NFLX": 0.16,
   "AMZN": 0.12,
   "MSFT": 0.16,
   "COIN": 0.11
  },
  "2026-03-06": {
   "TSLA": 0.0,
   "NFLX": 0.18,
   "AMZN": 0.13,
   "MSFT": 0.17,
   "COIN": 0.12
  },
  "2026-03-09": {
   "TSLA": 0.0,
   "NFLX": 0.2,
   "AMZN": 0.15,
   "MSFT": 0.18,
   "COIN": 0.13
  },
  "2026-03-10": {
   "TSLA": 0.0,
   "NFLX": 0.22,
   "AMZN": 0.17,
   "MSFT": 0.2,
   "COIN": 0.15
  },
  "2026-03-11": {
   "TSLA": 0.15,
   "NFLX": 0.15,
   "AMZN": 0.18,
   "MSFT": 0.22,
   "COIN": 0.15
  },
  "2026-03-12": {
   "TSLA": 0.17,
   "NFLX": 0.0,
   "AMZN": 0.2,
   "MSFT": 0.15,
   "COIN": 0.18
  },
  "2026-03-13": {
   "TSLA": 0.1,
   "NFLX": 0.0,
   "AMZN": 0.1,
   "MSFT": 0.15,
   "COIN": 0.1
  },
  "2026-03-16": {
   "TSLA": 0.05,
   "NFLX": 0.0,
   "AMZN": 0.1,
   "MSFT": 0.15,
   "COIN": 0.0
  },
  "2026-03-17": {
   "TSLA": 0.07,
   "NFLX": 0.0,
   "AMZN": 0.12,
   "MSFT": 0.13,
   "COIN": 0.03
  },
  "2026-03-18": {
   "TSLA": 0.03,
   "NFLX": 0.05,
   "AMZN": 0.06,
   "MSFT": 0.12,
   "COIN": 0.04
  },
  "2026-03-19": {
   "TSLA": 0.0,
   "NFLX": 0.075,
   "AMZN": 0.0,
   "MSFT": 0.125,
   "COIN": 0.05
  },
  "2026-03-20": {
   "TSLA": 0.0,
   "NFLX": 0.08,
   "AMZN": 0.0,
   "MSFT": 0.12,
   "COIN": 0.0
  },
  "2026-03-23": {
   "TSLA": 0.0,
   "NFLX": 0.04,
   "AMZN": 0.2,
   "MSFT": 0.08,
   "COIN": 0.05
  },
  "2026-03-24": {
   "TSLA": 0.25,
   "NFLX": 0.0,
   "AMZN": 0.3,
   "MSFT": 0.0,
   "COIN": 0.0
  },
  "2026-03-25": {
   "TSLA": 0.3,
   "NFLX": 0.15,
   "AMZN": 0.0,
   "MSFT": 0.0,
   "COIN": 0.0
  },
  "2026-03-26": {
   "TSLA": 0.32,
   "NFLX": 0.18,
   "AMZN": 0.05,
   "MSFT": 0.05,
   "COIN": 0.0
  },
  "2026-03-27": {
   "TSLA": 0.25,
   "NFLX": 0.15,
   "AMZN": 0.1,
   "MSFT": 0.05,
   "COIN": 0.0
  },
  "2026-03-30": {
   "TSLA": 0.15,
   "NFLX": 0.2,
   "AMZN": 0.05,
   "MSFT": 0.1,
   "COIN": 0.0
  },
  "2026-03-31": {
   "TSLA": 0.17,
   "NFLX": 0.22,
   "AMZN": 0.06,
   "MSFT": 0.08,
   "COIN": 0.07
  },
  "2026-04-01": {
   "TSLA": 0.18,
   "NFLX": 0.23,
   "AMZN": 0.075,
   "MSFT": 0.085,
   "COIN": 0.075
  },
  "2026-04-02": {
   "TSLA": 0.17,
   "NFLX": 0.24,
   "AMZN": 0.08,
   "MSFT": 0.09,
   "COIN": 0.0
  },
  "2026-04-06": {
   "TSLA": 0.1,
   "NFLX": 0.27,
   "AMZN": 0.1,
   "MSFT": 0.11,
   "COIN": 0.0
  },
  "2026-04-07": {
   "TSLA": 0.05,
   "NFLX": 0.28,
   "AMZN": 0.12,
   "MSFT": 0.12,
   "COIN": 0.05
  },
  "2026-04-08": {
   "TSLA": 0.0,
   "NFLX": 0.3,
   "AMZN": 0.15,
   "MSFT": 0.15,
   "COIN": 0.05
  },
  "2026-04-09": {
   "TSLA": 0.0,
   "NFLX": 0.32,
   "AMZN": 0.17,
   "MSFT": 0.17,
   "COIN": 0.06
  },
  "2026-04-10": {
   "TSLA": 0.1,
   "NFLX": 0.3,
   "AMZN": 0.18,
   "MSFT": 0.18,
   "COIN": 0.0
  },
  "2026-04-13": {
   "TSLA": 0.11,
   "NFLX": 0.31,
   "AMZN": 0.19,
   "MSFT": 0.18,
   "COIN": 0.05
  },
  "2026-04-14": {
   "TSLA": 0.115,
   "NFLX": 0.315,
   "AMZN": 0.195,
   "MSFT": 0.185,
   "COIN": 0.055
  },
  "2026-04-15": {
   "TSLA": 0.12,
   "NFLX": 0.32,
   "AMZN": 0.2,
   "MSFT": 0.19,
   "COIN": 0.06
  },
  "2026-04-16": {
   "TSLA": 0.13,
   "NFLX": 0.33,
   "AMZN": 0.21,
   "MSFT": 0.2,
   "COIN": 0.06
  },
  "2026-04-17": {
   "TSLA": 0.14,
   "NFLX": 0.1,
   "AMZN": 0.22,
   "MSFT": 0.21,
   "COIN": 0.07
  },
  "2026-04-20": {
   "TSLA": 0.16,
   "NFLX": 0.0,
   "AMZN": 0.23,
   "MSFT": 0.22,
   "COIN": 0.08
  },
  "2026-04-21": {
   "TSLA": 0.17,
   "NFLX": 0.0,
   "AMZN": 0.24,
   "MSFT": 0.23,
   "COIN": 0.09
  },
  "2026-04-22": {
   "TSLA": 0.18,
   "NFLX": 0.0,
   "AMZN": 0.25,
   "MSFT": 0.24,
   "COIN": 0.1
  },
  "2026-04-23": {
   "TSLA": 0.19,
   "NFLX": 0.05,
   "AMZN": 0.27,
   "MSFT": 0.25,
   "COIN": 0.12
  },
  "2026-04-24": {
   "TSLA": 0.0,
   "NFLX": 0.05,
   "AMZN": 0.3,
   "MSFT": 0.28,
   "COIN": 0.12
  },
  "2026-04-27": {
   "TSLA": 0.0,
   "NFLX": 0.04,
   "AMZN": 0.32,
   "MSFT": 0.3,
   "COIN": 0.12
  },
  "2026-04-28": {
   "TSLA": 0.0,
   "NFLX": 0.03,
   "AMZN": 0.34,
   "MSFT": 0.32,
   "COIN": 0.0
  },
  "2026-04-29": {
   "TSLA": 0.0,
   "NFLX": 0.02,
   "AMZN": 0.37,
   "MSFT": 0.35,
   "COIN": 0.0
  },
  "2026-04-30": {
   "TSLA": 0.05,
   "NFLX": 0.05,
   "AMZN": 0.45,
   "MSFT": 0.0,
   "COIN": 0.0
  },
  "2026-05-01": {
   "TSLA": 0.08,
   "NFLX": 0.04,
   "AMZN": 0.45,
   "MSFT": 0.0,
   "COIN": 0.0
  },
  "2026-05-04": {
   "TSLA": 0.12,
   "NFLX": 0.0,
   "AMZN": 0.48,
   "MSFT": 0.0,
   "COIN": 0.1
  },
  "2026-05-05": {
   "TSLA": 0.15,
   "NFLX": 0.0,
   "AMZN": 0.5,
   "MSFT": 0.0,
   "COIN": 0.1
  },
  "2026-05-06": {
   "TSLA": 0.17,
   "NFLX": 0.0,
   "AMZN": 0.47,
   "MSFT": 0.05,
   "COIN": 0.11
  },
  "2026-05-07": {
   "TSLA": 0.18,
   "NFLX": 0.0,
   "AMZN": 0.48,
   "MSFT": 0.06,
   "COIN": 0.0
  },
  "2026-05-08": {
   "TSLA": 0.2,
   "NFLX": 0.05,
   "AMZN": 0.5,
   "MSFT": 0.05,
   "COIN": 0.1
  },
  "2026-05-11": {
   "TSLA": 0.22,
   "NFLX": 0.03,
   "AMZN": 0.48,
   "MSFT": 0.08,
   "COIN": 0.11
  },
  "2026-05-12": {
   "TSLA": 0.25,
   "NFLX": 0.025,
   "AMZN": 0.35,
   "MSFT": 0.05,
   "COIN": 0.15
  },
  "2026-05-13": {
   "TSLA": 0.35,
   "NFLX": 0.0375,
   "AMZN": 0.2,
   "MSFT": 0.025,
   "COIN": 0.125
  },
  "2026-05-14": {
   "TSLA": 0.4,
   "NFLX": 0.03,
   "AMZN": 0.0,
   "MSFT": 0.0,
   "COIN": 0.15
  },
  "2026-05-15": {
   "TSLA": 0.45,
   "NFLX": 0.02,
   "AMZN": 0.0,
   "MSFT": 0.1,
   "COIN": 0.0
  },
  "2026-05-18": {
   "TSLA": 0.3,
   "NFLX": 0.05,
   "AMZN": 0.05,
   "MSFT": 0.12,
   "COIN": 0.0
  },
  "2026-05-19": {
   "TSLA": 0.2,
   "NFLX": 0.15,
   "AMZN": 0.05,
   "MSFT": 0.15,
   "COIN": 0.0
  },
  "2026-05-20": {
   "TSLA": 0.1,
   "NFLX": 0.2,
   "AMZN": 0.05,
   "MSFT": 0.2,
   "COIN": 0.0
  },
  "2026-05-21": {
   "TSLA": 0.05,
   "NFLX": 0.225,
   "AMZN": 0.075,
   "MSFT": 0.225,
   "COIN": 0.0
  },
  "2026-05-22": {
   "TSLA": 0.04,
   "NFLX": 0.25,
   "AMZN": 0.08,
   "MSFT": 0.24,
   "COIN": 0.05
  },
  "2026-05-26": {
   "TSLA": 0.04,
   "NFLX": 0.3,
   "AMZN": 0.0,
   "MSFT": 0.27,
   "COIN": 0.05
  },
  "2026-05-27": {
   "TSLA": 0.06,
   "NFLX": 0.33,
   "AMZN": 0.12,
   "MSFT": 0.17,
   "COIN": 0.0
  },
  "2026-05-28": {
   "TSLA": 0.07,
   "NFLX": 0.23,
   "AMZN": 0.14,
   "MSFT": 0.18,
   "COIN": 0.0
  },
  "2026-05-29": {
   "TSLA": 0.09,
   "NFLX": 0.0,
   "AMZN": 0.16,
   "MSFT": 0.2,
   "COIN": 0.0
  }
 },
 "portfolio_cum_return": -0.035586383791458176,
 "equal_weight_bh_cum_return": -0.003941992225903745,
 "portfolio_daily": [
  0.01625523031350401,
  -0.0017804763582895443,
  -0.00036086374789534624,
  0.005894362332376599,
  0.0005974506794547384,
  -0.0005553011976162283,
  -0.002386136708367381,
  -0.013541865036261251,
  -0.008722425691610526,
  0.0036771212098306843,
  -0.010901069365478199,
  -0.002421131860787795,
  0.0025069338926150273,
  0.0029920349587490304,
  -0.00024952438369682756,
  0.0038902811450593957,
  -0.0009026735033514233,
  -0.014497448958546957,
  -0.0022799873568920626,
  0.0005608678111613827,
  -0.006409251608779554,
  -0.011784361487062535,
  -0.01797880271075588,
  0.01701716641399465,
  0.0002661014416636409,
  0.0016394396176396798,
  -0.005624202190590716,
  -0.008842054238293384,
  0.0046083357878092205,
  -0.0006654550380042267,
  0.0012291765318959858,
  0.0002583321171824388,
  0.0006555279067376407,
  -0.0041061679435425765,
  0.002085647578033785,
  0.006437021893917157,
  -0.0016985105210073148,
  0.0053301012879063804,
  0.004818413891095851,
  0.000668166788543778,
  0.016126503171305692,
  0.002144514394867891,
  -0.009679999914968578,
  0.0006490526135006868,
  -0.005949431493969715,
  -0.004808137617979937,
  -0.013988374952344864,
  -0.003627875044696635,
  0.008726974522032827,
  0.0019004984822803938,
  -0.0077231430837171175,
  -0.003559198149445008,
  -0.0035651319909321827,
  0.0017142753179535842,
  -0.010836777082207288,
  0.008376624844796777,
  -0.009067382062326356,
  -0.011860681193193192,
  -0.00414953023418247,
  0.01873885409497228,
  0.0028163051495262905,
  -0.002279647496915861,
  -0.0019944029758366013,
  -0.0017624792389677626,
  0.0059554149887303025,
  0.01419747476869255,
  0.005033936095480441,
  0.009123621214428631,
  0.027207195496038783,
  0.0245430403469923,
  0.005650199065917004,
  -0.024287956103643617,
  -0.007934405890334185,
  -0.003691072412953647,
  0.015189708265636991,
  -0.020227554218963422,
  0.01698740835627347,
  -0.005564482841541608,
  0.00020807472694595042,
  0.0007530739474857929,
  -0.010589053919503466,
  0.005808894467374221,
  0.006251661203586829,
  -0.0008948181439114578,
  0.006344093570282339,
  -0.0029165424978504885,
  0.009105799536731624,
  0.007221171733177401,
  -0.016089224197609945,
  0.007931012956224653,
  0.0026161336054642895,
  -0.030705907973966474,
  -0.01206694862221192,
  -0.007257035958388964,
  0.006827153915207957,
  0.0030349383106398117,
  -0.0016643223365787024,
  -0.004996028145662263,
  -0.004415620719239989,
  0.0033451485835160615,
  0.0061797684937109805
 ],
 "equal_weight_daily": [
  0.028546396518845628,
  -0.004329140956931843,
  -0.0016391438546762283,
  0.0030167035139695873,
  -0.0006796552983936888,
  0.0018788216419856284,
  0.003375109555462652,
  -0.014690819123423692,
  -0.014267566447522962,
  0.003152278541674658,
  -0.030268691258964142,
  -0.0035545137701146422,
  0.006488293591265792,
  0.01117434936474957,
  -0.009107453238305464,
  0.004892805559052848,
  -0.004193039284201783,
  -0.04123215028200835,
  -0.0005063954363538903,
  -0.01296823808835168,
  -0.02479067670257331,
  -0.022568814870923083,
  -0.04800073942984149,
  0.02897950347905509,
  0.008515698737305,
  -0.0019163369065706482,
  -0.023409668203654733,
  -0.03612635850644437,
  0.034699150610761856,
  -0.0007036969914735014,
  0.005534308529978493,
  -9.198379055423978e-05,
  0.015419617151172727,
  -0.03655917063833127,
  0.01788761290752059,
  0.05086371404358858,
  -0.004810333317346482,
  0.016348378764393812,
  0.014273799569164147,
  -0.004227005971886588,
  0.046371159175387346,
  0.002419693190475458,
  -0.018978434659526665,
  0.002658121013515058,
  -0.0067957794711914765,
  0.00021466887665182454,
  -0.017368110702796268,
  -0.0023436085680599516,
  0.016110743741155998,
  0.009906383615916248,
  -0.018853079277740846,
  -0.014464868258348473,
  -0.018571257211389837,
  0.01880074643031935,
  -0.03176125616665089,
  0.007984327945282033,
  -0.020115820234963167,
  -0.03233861805210703,
  -0.0021965671108883367,
  0.04683384508987638,
  0.003789178208525268,
  -0.00464747754533692,
  0.0026907324463172123,
  -0.002669017178102262,
  0.00718332263293715,
  0.010335843904732389,
  0.005293355078381934,
  0.018786599534058857,
  0.036215413786205096,
  0.03918730336062452,
  0.007966952292516493,
  -0.0050195913789016664,
  -0.008066127519815702,
  -0.018435310473245113,
  0.02098470435660804,
  -0.02422820587332548,
  0.013674199348022543,
  -0.006229047791797937,
  -0.0010552149246037424,
  -0.014443423664929678,
  0.008295769209514626,
  0.010892244280281838,
  0.013312462498738875,
  -0.013620762489877803,
  0.008192011475981208,
  0.0019658739015655734,
  0.013247841627121826,
  0.014569918396533054,
  -0.013018648846178715,
  0.0015878162346132153,
  0.007746251538446547,
  -0.021162256144432567,
  -0.00457478136661924,
  -0.006406890142872523,
  0.007615451559090647,
  0.007502446512192474,
  -0.008359595330207314,
  -0.00588940104584299,
  -0.0012215456220409538,
  0.016793401251491223,
  0.012236001451683753
 ]
}